svm_type one_class
kernel_type rbf
gamma 0.27000000000000002
nr_class 2
total_sv 5
rho 1.3592287781644834
SV
0.49460708260683528 1:0.0339143 2:0.0624308 3:-0.295922 4:0.595054 5:-0.967829 
0.59525936795635415 1:1 2:-0.945407 3:0.762329 4:-0.414673 5:-0.269952 
0.96017233242921129 1:0.954593 2:-1 3:1 4:-1 5:1 
0.92724024250395731 1:-1 2:1 3:-1 4:0.678604 5:0.31016 
0.42272097450364216 1:-0.51485 2:0.600522 3:-0.812157 4:1 5:-1 
